<?xml version="1.0"?>
<opencv_storage>
<myhaar type_id="opencv-haar-classifier">
  <size>
    24 24</size>
  <stages>
    <_>
      <trees>
        <_>
          <_>
            <feature>
              <rects>
                <_>
                  5 0 11 20 -1.</_>
                <_>
                  5 5 11 10 2.</_></rects>
              <tilted>0</tilted></feature>
            <threshold>-0.0943597927689552</threshold>
            <left_val>0.9041661024093628</left_val>
            <right_val>-0.4822165071964264</right_val></_></_>
        <_>
          <_>
            <feature>
              <rects>
                <_>
                  0 0 24 10 -1.</_>
                <_>
                  0 5 24 5 2.</_></rects>
              <tilted>0</tilted></feature>
            <threshold>-0.1664794981479645</threshold>
            <left_val>0.9412385225296021</left_val>
            <right_val>-0.1924944072961807</right_val></_></_>
        <_>
          <_>
            <feature>
              <rects>
                <_>
                  3 16 6 2 -1.</_>
                <_>
                  3 16 6 1 2.</_></rects>
              <tilted>1</tilted></feature>
            <threshold>0.0111131696030498</threshold>
            <left_val>-0.4114952981472015</left_val>
            <right_val>0.8510280251502991</right_val></_></_>
        <_>
          <_>
            <feature>
              <rects>
                <_>
                  7 20 16 4 -1.</_>
                <_>
                  15 20 8 2 2.</_>
                <_>
                  7 22 8 2 2.</_></rects>
              <tilted>0</tilted></feature>
            <threshold>-0.0220857206732035</threshold>
            <left_val>0.7818378806114197</left_val>
            <right_val>-0.1833571940660477</right_val></_></_>
        <_>
          <_>
            <feature>
              <rects>
                <_>
                  2 0 2 12 -1.</_>
                <_>
                  2 6 2 6 2.</_></rects>
              <tilted>0</tilted></feature>
            <threshold>0.0118169002234936</threshold>
            <left_val>-0.3425529897212982</left_val>
            <right_val>0.7576212286949158</right_val></_></_></trees>
      <stage_threshold>-0.6469212770462036</stage_threshold>
      <parent>-1</parent>
      <next>-1</next></_>
    <_>
      <trees>
        <_>
          <_>
            <feature>
              <rects>
                <_>
                  4 0 12 4 -1.</_>
                <_>
                  4 0 6 4 2.</_></rects>
              <tilted>1</tilted></feature>
            <threshold>0.0433734096586704</threshold>
            <left_val>-0.5734208226203919</left_val>
            <right_val>0.5669115185737610</right_val></_></_>
        <_>
          <_>
            <feature>
              <rects>
                <_>
                  6 20 12 4 -1.</_>
                <_>
                  6 22 12 2 2.</_></rects>
              <tilted>0</tilted></feature>
            <threshold>-0.0155023904517293</threshold>
            <left_val>0.7499591112136841</left_val>
            <right_val>-0.4322468936443329</right_val></_></_>
        <_>
          <_>
            <feature>
              <rects>
                <_>
                  2 5 20 17 -1.</_>
                <_>
                  12 5 10 17 2.</_></rects>
              <tilted>0</tilted></feature>
            <threshold>0.0968348607420921</threshold>
            <left_val>0.2720192968845367</left_val>
            <right_val>-0.9639229178428650</right_val></_></_>
        <_>
          <_>
            <feature>
              <rects>
                <_>
                  21 2 3 20 -1.</_>
                <_>
                  21 7 3 10 2.</_></rects>
              <tilted>0</tilted></feature>
            <threshold>-0.0617594197392464</threshold>
            <left_val>0.8692368865013123</left_val>
            <right_val>-0.2429106980562210</right_val></_></_>
        <_>
          <_>
            <feature>
              <rects>
                <_>
                  4 18 3 6 -1.</_>
                <_>
                  4 21 3 3 2.</_></rects>
              <tilted>0</tilted></feature>
            <threshold>-0.0141211301088333</threshold>
            <left_val>0.8469023108482361</left_val>
            <right_val>-0.2886762917041779</right_val></_></_>
        <_>
          <_>
            <feature>
              <rects>
                <_>
                  22 1 2 1 -1.</_>
                <_>
                  22 1 1 1 2.</_></rects>
              <tilted>1</tilted></feature>
            <threshold>1.7089759930968285e-003</threshold>
            <left_val>0.1863303035497665</left_val>
            <right_val>-0.8782415986061096</right_val></_></_>
        <_>
          <_>
            <feature>
              <rects>
                <_>
                  0 23 24 1 -1.</_>
                <_>
                  6 23 12 1 2.</_></rects>
              <tilted>0</tilted></feature>
            <threshold>-0.0288437698036432</threshold>
            <left_val>0.7853795289993286</left_val>
            <right_val>-0.3531233072280884</right_val></_></_>
        <_>
          <_>
            <feature>
              <rects>
                <_>
                  18 1 5 4 -1.</_>
                <_>
                  17 2 5 2 2.</_></rects>
              <tilted>1</tilted></feature>
            <threshold>0.0108850197866559</threshold>
            <left_val>-0.1399194002151489</left_val>
            <right_val>0.7794318795204163</right_val></_></_>
        <_>
          <_>
            <feature>
              <rects>
                <_>
                  6 1 4 5 -1.</_>
                <_>
                  7 2 2 5 2.</_></rects>
              <tilted>1</tilted></feature>
            <threshold>0.0156097998842597</threshold>
            <left_val>-0.3507665991783142</left_val>
            <right_val>0.7616372108459473</right_val></_></_></trees>
      <stage_threshold>-0.8640466928482056</stage_threshold>
      <parent>0</parent>
      <next>-1</next></_>
    <_>
      <trees>
        <_>
          <_>
            <feature>
              <rects>
                <_>
                  0 0 24 12 -1.</_>
                <_>
                  0 6 24 6 2.</_></rects>
              <tilted>0</tilted></feature>
            <threshold>-0.2019789069890976</threshold>
            <left_val>0.8235718011856079</left_val>
            <right_val>-0.3785287141799927</right_val></_></_>
        <_>
          <_>
            <feature>
              <rects>
                <_>
                  9 2 10 21 -1.</_>
                <_>
                  9 9 10 7 3.</_></rects>
              <tilted>0</tilted></feature>
            <threshold>-0.1373243033885956</threshold>
            <left_val>0.6230027079582214</left_val>
            <right_val>-0.2036989033222199</right_val></_></_>
        <_>
          <_>
            <feature>
              <rects>
                <_>
                  4 13 6 4 -1.</_>
                <_>
                  3 14 6 2 2.</_></rects>
              <tilted>1</tilted></feature>
            <threshold>0.0186714604496956</threshold>
            <left_val>-0.3623014986515045</left_val>
            <right_val>0.7664086222648621</right_val></_></_>
        <_>
          <_>
            <feature>
              <rects>
                <_>
                  20 0 3 24 -1.</_>
                <_>
                  20 12 3 12 2.</_></rects>
              <tilted>0</tilted></feature>
            <threshold>-1.2113449629396200e-003</threshold>
            <left_val>0.3446362912654877</left_val>
            <right_val>-0.6494445800781250</right_val></_></_>
        <_>
          <_>
            <feature>
              <rects>
                <_>
                  8 0 8 4 -1.</_>
                <_>
                  8 1 8 2 2.</_></rects>
              <tilted>0</tilted></feature>
            <threshold>8.4494231268763542e-003</threshold>
            <left_val>-0.3189102113246918</left_val>
            <right_val>0.7688965797424316</right_val></_></_>
        <_>
          <_>
            <feature>
              <rects>
                <_>
                  20 17 4 3 -1.</_>
                <_>
                  20 17 2 3 2.</_></rects>
              <tilted>1</tilted></feature>
            <threshold>-0.0275225806981325</threshold>
            <left_val>0.8396230936050415</left_val>
            <right_val>-0.1516402065753937</right_val></_></_>
        <_>
          <_>
            <feature>
              <rects>
                <_>
                  1 10 20 13 -1.</_>
                <_>
                  11 10 10 13 2.</_></rects>
              <tilted>0</tilted></feature>
            <threshold>-0.1445723026990891</threshold>
            <left_val>-0.8994408845901489</left_val>
            <right_val>0.2541165947914124</right_val></_></_></trees>
      <stage_threshold>-0.8163266181945801</stage_threshold>
      <parent>1</parent>
      <next>-1</next></_>
    <_>
      <trees>
        <_>
          <_>
            <feature>
              <rects>
                <_>
                  4 15 5 4 -1.</_>
                <_>
                  3 16 5 2 2.</_></rects>
              <tilted>1</tilted></feature>
            <threshold>-0.0140076996758580</threshold>
            <left_val>0.7706379890441895</left_val>
            <right_val>-0.3308232128620148</right_val></_></_>
        <_>
          <_>
            <feature>
              <rects>
                <_>
                  3 5 20 10 -1.</_>
                <_>
                  8 5 10 10 2.</_></rects>
              <tilted>0</tilted></feature>
            <threshold>-0.0955105125904083</threshold>
            <left_val>0.4983730018138886</left_val>
            <right_val>-0.2241186946630478</right_val></_></_>
        <_>
          <_>
            <feature>
              <rects>
                <_>
                  8 0 3 8 -1.</_>
                <_>
                  9 1 1 8 3.</_></rects>
              <tilted>1</tilted></feature>
            <threshold>0.0208321493119001</threshold>
            <left_val>-0.2444961071014404</left_val>
            <right_val>0.7429559826850891</right_val></_></_>
        <_>
          <_>
            <feature>
              <rects>
                <_>
                  23 1 1 22 -1.</_>
                <_>
                  23 12 1 11 2.</_></rects>
              <tilted>0</tilted></feature>
            <threshold>2.4590259417891502e-003</threshold>
            <left_val>0.1400347948074341</left_val>
            <right_val>-0.6015896797180176</right_val></_></_>
        <_>
          <_>
            <feature>
              <rects>
                <_>
                  0 0 24 3 -1.</_>
                <_>
                  12 0 12 3 2.</_></rects>
              <tilted>0</tilted></feature>
            <threshold>0.0249975901097059</threshold>
            <left_val>0.2112655937671661</left_val>
            <right_val>-0.8631361722946167</right_val></_></_>
        <_>
          <_>
            <feature>
              <rects>
                <_>
                  19 0 5 4 -1.</_>
                <_>
                  18 1 5 2 2.</_></rects>
              <tilted>1</tilted></feature>
            <threshold>0.0183194093406200</threshold>
            <left_val>-0.2338563054800034</left_val>
            <right_val>0.8275393843650818</right_val></_></_>
        <_>
          <_>
            <feature>
              <rects>
                <_>
                  5 0 4 5 -1.</_>
                <_>
                  6 1 2 5 2.</_></rects>
              <tilted>1</tilted></feature>
            <threshold>-0.0125654004514217</threshold>
            <left_val>0.7705671787261963</left_val>
            <right_val>-0.2564870119094849</right_val></_></_>
        <_>
          <_>
            <feature>
              <rects>
                <_>
                  2 21 22 3 -1.</_>
                <_>
                  2 21 11 3 2.</_></rects>
              <tilted>0</tilted></feature>
            <threshold>-0.0327524989843369</threshold>
            <left_val>-0.6242861747741699</left_val>
            <right_val>0.1738611012697220</right_val></_></_></trees>
      <stage_threshold>-0.7646198272705078</stage_threshold>
      <parent>2</parent>
      <next>-1</next></_>
    <_>
      <trees>
        <_>
          <_>
            <feature>
              <rects>
                <_>
                  0 22 24 2 -1.</_>
                <_>
                  6 22 12 2 2.</_></rects>
              <tilted>0</tilted></feature>
            <threshold>-0.0647435933351517</threshold>
            <left_val>0.8966537117958069</left_val>
            <right_val>-0.3118253052234650</right_val></_></_>
        <_>
          <_>
            <feature>
              <rects>
                <_>
                  18 9 6 10 -1.</_>
                <_>
                  20 9 2 10 3.</_></rects>
              <tilted>0</tilted></feature>
            <threshold>0.0185279101133347</threshold>
            <left_val>-0.2345972955226898</left_val>
            <right_val>0.6604769825935364</right_val></_></_>
        <_>
          <_>
            <feature>
              <rects>
                <_>
                  3 4 16 15 -1.</_>
                <_>
                  7 4 8 15 2.</_></rects>
              <tilted>0</tilted></feature>
            <threshold>-0.0927570983767509</threshold>
            <left_val>0.7429081797599793</left_val>
            <right_val>-0.3310647904872894</right_val></_></_>
        <_>
          <_>
            <feature>
              <rects>
                <_>
                  19 7 4 11 -1.</_>
                <_>
                  20 7 2 11 2.</_></rects>
              <tilted>0</tilted></feature>
            <threshold>6.5803918987512589e-003</threshold>
            <left_val>-0.1660743057727814</left_val>
            <right_val>0.3473390042781830</right_val></_></_>
        <_>
          <_>
            <feature>
              <rects>
                <_>
                  1 8 4 10 -1.</_>
                <_>
                  2 8 2 10 2.</_></rects>
              <tilted>0</tilted></feature>
            <threshold>0.0114628802984953</threshold>
            <left_val>-0.2395973950624466</left_val>
            <right_val>0.8644269704818726</right_val></_></_>
        <_>
          <_>
            <feature>
              <rects>
                <_>
                  18 22 6 1 -1.</_>
                <_>
                  18 22 3 1 2.</_></rects>
              <tilted>0</tilted></feature>
            <threshold>-2.6594419032335281e-003</threshold>
            <left_val>0.6044762134552002</left_val>
            <right_val>-0.5019155740737915</right_val></_></_>
        <_>
          <_>
            <feature>
              <rects>
                <_>
                  3 0 18 4 -1.</_>
                <_>
                  3 2 18 2 2.</_></rects>
              <tilted>0</tilted></feature>
            <threshold>0.0277457591146231</threshold>
            <left_val>-0.2616581916809082</left_val>
            <right_val>0.8025112152099609</right_val></_></_></trees>
      <stage_threshold>-0.9825634956359863</stage_threshold>
      <parent>3</parent>
      <next>-1</next></_>
    <_>
      <trees>
        <_>
          <_>
            <feature>
              <rects>
                <_>
                  0 0 24 20 -1.</_>
                <_>
                  0 5 24 10 2.</_></rects>
              <tilted>0</tilted></feature>
            <threshold>-0.2323179990053177</threshold>
            <left_val>0.9039413928985596</left_val>
            <right_val>-0.3085448145866394</right_val></_></_>
        <_>
          <_>
            <feature>
              <rects>
                <_>
                  5 22 14 2 -1.</_>
                <_>
                  5 23 14 1 2.</_></rects>
              <tilted>0</tilted></feature>
            <threshold>-0.0121205598115921</threshold>
            <left_val>0.8198949098587036</left_val>
            <right_val>-0.2203910052776337</right_val></_></_>
        <_>
          <_>
            <feature>
              <rects>
                <_>
                  0 22 24 2 -1.</_>
                <_>
                  6 22 12 2 2.</_></rects>
              <tilted>0</tilted></feature>
            <threshold>-0.0607269294559956</threshold>
            <left_val>0.7976515889167786</left_val>
            <right_val>-0.1930003017187119</right_val></_></_>
        <_>
          <_>
            <feature>
              <rects>
                <_>
                  0 2 24 2 -1.</_>
                <_>
                  6 2 12 2 2.</_></rects>
              <tilted>0</tilted></feature>
            <threshold>0.0407069399952888</threshold>
            <left_val>-0.2366853952407837</left_val>
            <right_val>0.7808883190155029</right_val></_></_>
        <_>
          <_>
            <feature>
              <rects>
                <_>
                  0 20 2 4 -1.</_>
                <_>
                  0 22 2 2 2.</_></rects>
              <tilted>0</tilted></feature>
            <threshold>-1.2305569835007191e-003</threshold>
            <left_val>-0.7847167849540710</left_val>
            <right_val>0.2736322879791260</right_val></_></_>
        <_>
          <_>
            <feature>
              <rects>
                <_>
                  21 0 3 24 -1.</_>
                <_>
                  21 12 3 12 2.</_></rects>
              <tilted>0</tilted></feature>
            <threshold>3.1311400234699249e-003</threshold>
            <left_val>0.0456448607146740</left_val>
            <right_val>-0.5277876257896423</right_val></_></_>
        <_>
          <_>
            <feature>
              <rects>
                <_>
                  2 20 2 2 -1.</_>
                <_>
                  2 20 1 2 2.</_></rects>
              <tilted>1</tilted></feature>
            <threshold>-1.7935599898919463e-003</threshold>
            <left_val>-0.7651516795158386</left_val>
            <right_val>0.2273305952548981</right_val></_></_>
        <_>
          <_>
            <feature>
              <rects>
                <_>
                  18 7 6 12 -1.</_>
                <_>
                  20 7 2 12 3.</_></rects>
              <tilted>0</tilted></feature>
            <threshold>0.0314555205404758</threshold>
            <left_val>-0.2333056032657623</left_val>
            <right_val>0.4759587049484253</right_val></_></_></trees>
      <stage_threshold>-0.9285374283790588</stage_threshold>
      <parent>4</parent>
      <next>-1</next></_>
    <_>
      <trees>
        <_>
          <_>
            <feature>
              <rects>
                <_>
                  1 4 20 13 -1.</_>
                <_>
                  6 4 10 13 2.</_></rects>
              <tilted>0</tilted></feature>
            <threshold>-0.1002342998981476</threshold>
            <left_val>0.6541634798049927</left_val>
            <right_val>-0.4569239914417267</right_val></_></_>
        <_>
          <_>
            <feature>
              <rects>
                <_>
                  0 21 24 3 -1.</_>
                <_>
                  6 21 12 3 2.</_></rects>
              <tilted>0</tilted></feature>
            <threshold>-0.0860419124364853</threshold>
            <left_val>0.8156151175498962</left_val>
            <right_val>-0.2594298124313355</right_val></_></_>
        <_>
          <_>
            <feature>
              <rects>
                <_>
                  0 1 4 19 -1.</_>
                <_>
                  2 1 2 19 2.</_></rects>
              <tilted>0</tilted></feature>
            <threshold>0.0315950997173786</threshold>
            <left_val>-0.2761358916759491</left_val>
            <right_val>0.7996910214424133</right_val></_></_>
        <_>
          <_>
            <feature>
              <rects>
                <_>
                  20 21 2 1 -1.</_>
                <_>
                  20 21 1 1 2.</_></rects>
              <tilted>1</tilted></feature>
            <threshold>-1.5590609982609749e-003</threshold>
            <left_val>0.5177090167999268</left_val>
            <right_val>-0.4184595942497253</right_val></_></_>
        <_>
          <_>
            <feature>
              <rects>
                <_>
                  4 21 1 2 -1.</_>
                <_>
                  4 21 1 1 2.</_></rects>
              <tilted>1</tilted></feature>
            <threshold>-9.5173527370207012e-005</threshold>
            <left_val>0.3772409856319428</left_val>
            <right_val>-0.5132979154586792</right_val></_></_>
        <_>
          <_>
            <feature>
              <rects>
                <_>
                  0 2 24 2 -1.</_>
                <_>
                  6 2 12 2 2.</_></rects>
              <tilted>0</tilted></feature>
            <threshold>0.0477391108870506</threshold>
            <left_val>-0.3303447961807251</left_val>
            <right_val>0.7309696078300476</right_val></_></_>
        <_>
          <_>
            <feature>
              <rects>
                <_>
                  0 23 4 1 -1.</_>
                <_>
                  2 23 2 1 2.</_></rects>
              <tilted>0</tilted></feature>
            <threshold>-1.8262739467900246e-004</threshold>
            <left_val>0.4411472976207733</left_val>
            <right_val>-0.4216178059577942</right_val></_></_>
        <_>
          <_>
            <feature>
              <rects>
                <_>
                  15 12 3 4 -1.</_>
                <_>
                  16 13 1 4 3.</_></rects>
              <tilted>1</tilted></feature>
            <threshold>8.1600621342658997e-003</threshold>
            <left_val>-0.1535798013210297</left_val>
            <right_val>0.3973624110221863</right_val></_></_>
        <_>
          <_>
            <feature>
              <rects>
                <_>
                  9 12 4 3 -1.</_>
                <_>
                  8 13 4 1 3.</_></rects>
              <tilted>1</tilted></feature>
            <threshold>7.5679039582610130e-003</threshold>
            <left_val>-0.2668553888797760</left_val>
            <right_val>0.6678485870361328</right_val></_></_></trees>
      <stage_threshold>-1.2699379920959473</stage_threshold>
      <parent>5</parent>
      <next>-1</next></_>
    <_>
      <trees>
        <_>
          <_>
            <feature>
              <rects>
                <_>
                  0 0 21 24 -1.</_>
                <_>
                  0 12 21 12 2.</_></rects>
              <tilted>0</tilted></feature>
            <threshold>-0.1141057014465332</threshold>
            <left_val>0.4285314977169037</left_val>
            <right_val>-0.6294639706611633</right_val></_></_>
        <_>
          <_>
            <feature>
              <rects>
                <_>
                  2 2 21 21 -1.</_>
                <_>
                  9 9 7 7 9.</_></rects>
              <tilted>0</tilted></feature>
            <threshold>-0.4506376087665558</threshold>
            <left_val>0.5215538144111633</left_val>
            <right_val>-0.3692108094692230</right_val></_></_>
        <_>
          <_>
            <feature>
              <rects>
                <_>
                  6 0 3 6 -1.</_>
                <_>
                  7 1 1 6 3.</_></rects>
              <tilted>1</tilted></feature>
            <threshold>-0.0183997005224228</threshold>
            <left_val>0.6934881210327148</left_val>
            <right_val>-0.2498852014541626</right_val></_></_>
        <_>
          <_>
            <feature>
              <rects>
                <_>
                  18 0 5 2 -1.</_>
                <_>
                  18 0 5 1 2.</_></rects>
              <tilted>1</tilted></feature>
            <threshold>-9.6139004454016685e-003</threshold>
            <left_val>0.5588260889053345</left_val>
            <right_val>-0.2518266141414642</right_val></_></_>
        <_>
          <_>
            <feature>
              <rects>
                <_>
                  0 20 1 4 -1.</_>
                <_>
                  0 22 1 2 2.</_></rects>
              <tilted>0</tilted></feature>
            <threshold>1.5067199710756540e-003</threshold>
            <left_val>0.2471252977848053</left_val>
            <right_val>-0.7017093896865845</right_val></_></_>
        <_>
          <_>
            <feature>
              <rects>
                <_>
                  23 19 1 4 -1.</_>
                <_>
                  23 20 1 2 2.</_></rects>
              <tilted>0</tilted></feature>
            <threshold>-1.0515770409256220e-003</threshold>
            <left_val>-0.7197282910346985</left_val>
            <right_val>0.1864780038595200</right_val></_></_>
        <_>
          <_>
            <feature>
              <rects>
                <_>
                  0 7 2 13 -1.</_>
                <_>
                  1 7 1 13 2.</_></rects>
              <tilted>0</tilted></feature>
            <threshold>0.0128647498786449</threshold>
            <left_val>-0.2704904079437256</left_val>
            <right_val>0.7362769246101379</right_val></_></_></trees>
      <stage_threshold>-1.2367130517959595</stage_threshold>
      <parent>6</parent>
      <next>-1</next></_>
    <_>
      <trees>
        <_>
          <_>
            <feature>
              <rects>
                <_>
                  8 7 16 1 -1.</_>
                <_>
                  8 7 8 1 2.</_></rects>
              <tilted>1</tilted></feature>
            <threshold>-6.8147610872983932e-003</threshold>
            <left_val>0.5188382863998413</left_val>
            <right_val>-0.3690673112869263</right_val></_></_>
        <_>
          <_>
            <feature>
              <rects>
                <_>
                  19 22 3 2 -1.</_>
                <_>
                  19 23 3 1 2.</_></rects>
              <tilted>0</tilted></feature>
            <threshold>3.3725198591127992e-004</threshold>
            <left_val>-0.6128094792366028</left_val>
            <right_val>0.3988223969936371</right_val></_></_>
        <_>
          <_>
            <feature>
              <rects>
                <_>
                  4 15 5 4 -1.</_>
                <_>
                  4 15 5 2 2.</_></rects>
              <tilted>1</tilted></feature>
            <threshold>0.0416180789470673</threshold>
            <left_val>-0.2978397011756897</left_val>
            <right_val>0.7692881226539612</right_val></_></_>
        <_>
          <_>
            <feature>
              <rects>
                <_>
                  20 17 4 3 -1.</_>
                <_>
                  20 17 2 3 2.</_></rects>
              <tilted>1</tilted></feature>
            <threshold>-0.0187763199210167</threshold>
            <left_val>0.6588963270187378</left_val>
            <right_val>-0.2045356929302216</right_val></_></_>
        <_>
          <_>
            <feature>
              <rects>
                <_>
                  2 22 12 2 -1.</_>
                <_>
                  2 22 6 1 2.</_>
                <_>
                  8 23 6 1 2.</_></rects>
              <tilted>0</tilted></feature>
            <threshold>-4.3335319496691227e-003</threshold>
            <left_val>0.5388259887695313</left_val>
            <right_val>-0.3212496042251587</right_val></_></_>
        <_>
          <_>
            <feature>
              <rects>
                <_>
                  19 0 5 4 -1.</_>
                <_>
                  19 0 5 2 2.</_></rects>
              <tilted>1</tilted></feature>
            <threshold>-0.0249792896211147</threshold>
            <left_val>0.7564113140106201</left_val>
            <right_val>-0.2433436959981918</right_val></_></_>
        <_>
          <_>
            <feature>
              <rects>
                <_>
                  0 1 2 3 -1.</_>
                <_>
                  0 2 2 1 3.</_></rects>
              <tilted>0</tilted></feature>
            <threshold>2.0267150830477476e-003</threshold>
            <left_val>0.2187758982181549</left_val>
            <right_val>-0.9663878083229065</right_val></_></_></trees>
      <stage_threshold>-0.8303146958351135</stage_threshold>
      <parent>7</parent>
      <next>-1</next></_>
    <_>
      <trees>
        <_>
          <_>
            <feature>
              <rects>
                <_>
                  0 5 17 16 -1.</_>
                <_>
                  0 13 17 8 2.</_></rects>
              <tilted>0</tilted></feature>
            <threshold>-0.1052538976073265</threshold>
            <left_val>-0.7644894719123840</left_val>
            <right_val>0.2929964065551758</right_val></_></_>
        <_>
          <_>
            <feature>
              <rects>
                <_>
                  22 5 2 3 -1.</_>
                <_>
                  21 6 2 1 3.</_></rects>
              <tilted>1</tilted></feature>
            <threshold>6.4516079146414995e-004</threshold>
            <left_val>-0.2250971049070358</left_val>
            <right_val>0.1720674037933350</right_val></_></_>
        <_>
          <_>
            <feature>
              <rects>
                <_>
                  2 5 3 2 -1.</_>
                <_>
                  3 6 1 2 3.</_></rects>
              <tilted>1</tilted></feature>
            <threshold>-6.6439472138881683e-003</threshold>
            <left_val>0.6732587218284607</left_val>
            <right_val>-0.2656799852848053</right_val></_></_>
        <_>
          <_>
            <feature>
              <rects>
                <_>
                  19 2 3 3 -1.</_>
                <_>
                  18 3 3 1 3.</_></rects>
              <tilted>1</tilted></feature>
            <threshold>2.9097099322825670e-003</threshold>
            <left_val>-0.1456107050180435</left_val>
            <right_val>0.1804668009281158</right_val></_></_>
        <_>
          <_>
            <feature>
              <rects>
                <_>
                  0 0 1 6 -1.</_>
                <_>
                  0 2 1 2 3.</_></rects>
              <tilted>0</tilted></feature>
            <threshold>-1.7250370001420379e-003</threshold>
            <left_val>-0.7923349738121033</left_val>
            <right_val>0.2481380999088287</right_val></_></_>
        <_>
          <_>
            <feature>
              <rects>
                <_>
                  20 3 2 3 -1.</_>
                <_>
                  19 4 2 1 3.</_></rects>
              <tilted>1</tilted></feature>
            <threshold>-3.0452630016952753e-003</threshold>
            <left_val>0.3955616950988770</left_val>
            <right_val>-0.1423438936471939</right_val></_></_>
        <_>
          <_>
            <feature>
              <rects>
                <_>
                  7 0 3 6 -1.</_>
                <_>
                  8 1 1 6 3.</_></rects>
              <tilted>1</tilted></feature>
            <threshold>0.0128568597137928</threshold>
            <left_val>-0.2961572110652924</left_val>
            <right_val>0.6647292971611023</right_val></_></_>
        <_>
          <_>
            <feature>
              <rects>
                <_>
                  0 0 24 24 -1.</_>
                <_>
                  8 0 8 24 3.</_></rects>
              <tilted>0</tilted></feature>
            <threshold>-0.3635989129543304</threshold>
            <left_val>0.6889567971229553</left_val>
            <right_val>-0.2581815123558044</right_val></_></_>
        <_>
          <_>
            <feature>
              <rects>
                <_>
                  8 22 3 2 -1.</_>
                <_>
                  8 23 3 1 2.</_></rects>
              <tilted>0</tilted></feature>
            <threshold>-1.7466460121795535e-003</threshold>
            <left_val>0.5114349126815796</left_val>
            <right_val>-0.3982203006744385</right_val></_></_></trees>
      <stage_threshold>-0.9826260209083557</stage_threshold>
      <parent>8</parent>
      <next>-1</next></_>
    <_>
      <trees>
        <_>
          <_>
            <feature>
              <rects>
                <_>
                  0 0 2 22 -1.</_>
                <_>
                  1 0 1 22 2.</_></rects>
              <tilted>0</tilted></feature>
            <threshold>-0.0101565001532435</threshold>
            <left_val>0.7594634294509888</left_val>
            <right_val>-0.2650105059146881</right_val></_></_>
        <_>
          <_>
            <feature>
              <rects>
                <_>
                  20 7 4 10 -1.</_>
                <_>
                  21 7 2 10 2.</_></rects>
              <tilted>0</tilted></feature>
            <threshold>0.0115502402186394</threshold>
            <left_val>-0.1203391030430794</left_val>
            <right_val>0.6457340121269226</right_val></_></_>
        <_>
          <_>
            <feature>
              <rects>
                <_>
                  3 22 14 2 -1.</_>
                <_>
                  3 22 7 1 2.</_>
                <_>
                  10 23 7 1 2.</_></rects>
              <tilted>0</tilted></feature>
            <threshold>-1.0504199890419841e-003</threshold>
            <left_val>0.4180187880992889</left_val>
            <right_val>-0.4639259874820709</right_val></_></_>
        <_>
          <_>
            <feature>
              <rects>
                <_>
                  20 8 4 9 -1.</_>
                <_>
                  21 8 2 9 2.</_></rects>
              <tilted>0</tilted></feature>
            <threshold>-5.9189000166952610e-003</threshold>
            <left_val>0.5908849239349365</left_val>
            <right_val>-0.2155106067657471</right_val></_></_>
        <_>
          <_>
            <feature>
              <rects>
                <_>
                  0 8 4 9 -1.</_>
                <_>
                  1 8 2 9 2.</_></rects>
              <tilted>0</tilted></feature>
            <threshold>7.8149912878870964e-003</threshold>
            <left_val>-0.4712198078632355</left_val>
            <right_val>0.6564044952392578</right_val></_></_>
        <_>
          <_>
            <feature>
              <rects>
                <_>
                  13 1 9 12 -1.</_>
                <_>
                  10 4 9 6 2.</_></rects>
              <tilted>1</tilted></feature>
            <threshold>-0.0959282517433167</threshold>
            <left_val>0.4442912042140961</left_val>
            <right_val>-0.2692810893058777</right_val></_></_>
        <_>
          <_>
            <feature>
              <rects>
                <_>
                  6 0 3 4 -1.</_>
                <_>
                  7 1 1 4 3.</_></rects>
              <tilted>1</tilted></feature>
            <threshold>-0.0114699900150299</threshold>
            <left_val>0.6627348065376282</left_val>
            <right_val>-0.2355535030364990</right_val></_></_></trees>
      <stage_threshold>-1.0163669586181641</stage_threshold>
      <parent>9</parent>
      <next>-1</next></_>
    <_>
      <trees>
        <_>
          <_>
            <feature>
              <rects>
                <_>
                  1 0 1 24 -1.</_>
                <_>
                  1 12 1 12 2.</_></rects>
              <tilted>0</tilted></feature>
            <threshold>3.0674380250275135e-003</threshold>
            <left_val>0.2345440983772278</left_val>
            <right_val>-0.8361696004867554</right_val></_></_>
        <_>
          <_>
            <feature>
              <rects>
                <_>
                  9 22 6 2 -1.</_>
                <_>
                  9 22 3 2 2.</_></rects>
              <tilted>0</tilted></feature>
            <threshold>-6.1268471181392670e-003</threshold>
            <left_val>-0.9423655271530151</left_val>
            <right_val>0.1527881026268005</right_val></_></_>
        <_>
          <_>
            <feature>
              <rects>
                <_>
                  0 22 24 2 -1.</_>
                <_>
                  6 22 12 2 2.</_></rects>
              <tilted>0</tilted></feature>
            <threshold>-0.0704158693552017</threshold>
            <left_val>0.6866911053657532</left_val>
            <right_val>-0.2851598858833313</right_val></_></_>
        <_>
          <_>
            <feature>
              <rects>
                <_>
                  14 0 6 4 -1.</_>
                <_>
                  14 2 6 2 2.</_></rects>
              <tilted>0</tilted></feature>
            <threshold>0.0122414100915194</threshold>
            <left_val>-0.1692017018795013</left_val>
            <right_val>0.4740352928638458</right_val></_></_>
        <_>
          <_>
            <feature>
              <rects>
                <_>
                  6 1 10 20 -1.</_>
                <_>
                  6 6 10 10 2.</_></rects>
              <tilted>0</tilted></feature>
            <threshold>-0.1273379027843475</threshold>
            <left_val>0.5051618814468384</left_val>
            <right_val>-0.3087385892868042</right_val></_></_>
        <_>
          <_>
            <feature>
              <rects>
                <_>
                  0 0 24 10 -1.</_>
                <_>
                  12 0 12 5 2.</_>
                <_>
                  0 5 12 5 2.</_></rects>
              <tilted>0</tilted></feature>
            <threshold>-0.0616718791425228</threshold>
            <left_val>-0.8190925717353821</left_val>
            <right_val>0.2240404933691025</right_val></_></_>
        <_>
          <_>
            <feature>
              <rects>
                <_>
                  7 0 10 4 -1.</_>
                <_>
                  7 1 10 2 2.</_></rects>
              <tilted>0</tilted></feature>
            <threshold>9.8785748705267906e-003</threshold>
            <left_val>-0.2889099121093750</left_val>
            <right_val>0.5537117123603821</right_val></_></_>
        <_>
          <_>
            <feature>
              <rects>
                <_>
                  19 23 2 1 -1.</_>
                <_>
                  19 23 1 1 2.</_></rects>
              <tilted>0</tilted></feature>
            <threshold>-2.3095739379641600e-005</threshold>
            <left_val>0.2300882041454315</left_val>
            <right_val>-0.4949561059474945</right_val></_></_>
        <_>
          <_>
            <feature>
              <rects>
                <_>
                  3 23 2 1 -1.</_>
                <_>
                  4 23 1 1 2.</_></rects>
              <tilted>0</tilted></feature>
            <threshold>-3.3883668947964907e-005</threshold>
            <left_val>0.3511914908885956</left_val>
            <right_val>-0.4888358116149902</right_val></_></_></trees>
      <stage_threshold>-1.0118789672851562</stage_threshold>
      <parent>10</parent>
      <next>-1</next></_>
    <_>
      <trees>
        <_>
          <_>
            <feature>
              <rects>
                <_>
                  2 16 6 2 -1.</_>
                <_>
                  2 16 6 1 2.</_></rects>
              <tilted>1</tilted></feature>
            <threshold>-0.0163053907454014</threshold>
            <left_val>0.7180318236351013</left_val>
            <right_val>-0.2223329991102219</right_val></_></_>
        <_>
          <_>
            <feature>
              <rects>
                <_>
                  10 0 14 24 -1.</_>
                <_>
                  17 0 7 12 2.</_>
                <_>
                  10 12 7 12 2.</_></rects>
              <tilted>0</tilted></feature>
            <threshold>-0.0529701597988606</threshold>
            <left_val>-0.4887135028839111</left_val>
            <right_val>0.1220076978206635</right_val></_></_>
        <_>
          <_>
            <feature>
              <rects>
                <_>
                  5 0 4 5 -1.</_>
                <_>
                  5 0 2 5 2.</_></rects>
              <tilted>1</tilted></feature>
            <threshold>-0.0262922197580338</threshold>
            <left_val>0.5548536777496338</left_val>
            <right_val>-0.2508763968944550</right_val></_></_>
        <_>
          <_>
            <feature>
              <rects>
                <_>
                  23 1 1 22 -1.</_>
                <_>
                  23 12 1 11 2.</_></rects>
              <tilted>0</tilted></feature>
            <threshold>-0.0304297506809235</threshold>
            <left_val>-0.9016454815864563</left_val>
            <right_val>0.1374544948339462</right_val></_></_>
        <_>
          <_>
            <feature>
              <rects>
                <_>
                  0 1 1 22 -1.</_>
                <_>
                  0 12 1 11 2.</_></rects>
              <tilted>0</tilted></feature>
            <threshold>5.1453742198646069e-003</threshold>
            <left_val>0.1110588014125824</left_val>
            <right_val>-0.8989186286926270</right_val></_></_>
        <_>
          <_>
            <feature>
              <rects>
                <_>
                  22 19 2 2 -1.</_>
                <_>
                  22 19 1 2 2.</_></rects>
              <tilted>1</tilted></feature>
            <threshold>-3.7503161001950502e-003</threshold>
            <left_val>0.4101814031600952</left_val>
            <right_val>-0.4333218038082123</right_val></_></_>
        <_>
          <_>
            <feature>
              <rects>
                <_>
                  0 8 2 8 -1.</_>
                <_>
                  0 12 2 4 2.</_></rects>
              <tilted>0</tilted></feature>
            <threshold>-0.0120349498465657</threshold>
            <left_val>-0.8279036879539490</left_val>
            <right_val>0.1829223930835724</right_val></_></_>
        <_>
          <_>
            <feature>
              <rects>
                <_>
                  22 1 2 2 -1.</_>
                <_>
                  22 1 1 2 2.</_></rects>
              <tilted>1</tilted></feature>
            <threshold>-2.1882350556552410e-003</threshold>
            <left_val>-0.7734029293060303</left_val>
            <right_val>0.1187532022595406</right_val></_></_></trees>
      <stage_threshold>-0.8937087059020996</stage_threshold>
      <parent>11</parent>
      <next>-1</next></_>
    <_>
      <trees>
        <_>
          <_>
            <feature>
              <rects>
                <_>
                  3 19 1 2 -1.</_>
                <_>
                  3 19 1 1 2.</_></rects>
              <tilted>1</tilted></feature>
            <threshold>-2.4307629792019725e-004</threshold>
            <left_val>0.3432449996471405</left_val>
            <right_val>-0.4845927059650421</right_val></_></_>
        <_>
          <_>
            <feature>
              <rects>
                <_>
                  23 0 1 2 -1.</_>
                <_>
                  23 0 1 1 2.</_></rects>
              <tilted>1</tilted></feature>
            <threshold>-9.3077291967347264e-004</threshold>
            <left_val>-0.6596714258193970</left_val>
            <right_val>0.1227737963199616</right_val></_></_>
        <_>
          <_>
            <feature>
              <rects>
                <_>
                  6 4 12 15 -1.</_>
                <_>
                  10 9 4 5 9.</_></rects>
              <tilted>0</tilted></feature>
            <threshold>-0.5619161725044251</threshold>
            <left_val>0.9732378721237183</left_val>
            <right_val>-0.1361106038093567</right_val></_></_>
        <_>
          <_>
            <feature>
              <rects>
                <_>
                  23 0 1 2 -1.</_>
                <_>
                  23 0 1 1 2.</_></rects>
              <tilted>1</tilted></feature>
            <threshold>1.8425129819661379e-003</threshold>
            <left_val>0.1266928017139435</left_val>
            <right_val>-0.4903776049613953</right_val></_></_>
        <_>
          <_>
            <feature>
              <rects>
                <_>
                  1 0 2 1 -1.</_>
                <_>
                  1 0 1 1 2.</_></rects>
              <tilted>1</tilted></feature>
            <threshold>1.4979420229792595e-003</threshold>
            <left_val>0.1201402992010117</left_val>
            <right_val>-0.8618401885032654</right_val></_></_>
        <_>
          <_>
            <feature>
              <rects>
                <_>
                  20 0 4 4 -1.</_>
                <_>
                  20 0 4 2 2.</_></rects>
              <tilted>1</tilted></feature>
            <threshold>-0.0268779993057251</threshold>
            <left_val>0.6650838255882263</left_val>
            <right_val>-0.2144245952367783</right_val></_></_>
        <_>
          <_>
            <feature>
              <rects>
                <_>
                  6 0 2 6 -1.</_>
                <_>
                  6 0 1 6 2.</_></rects>
              <tilted>1</tilted></feature>
            <threshold>0.0204687602818012</threshold>
            <left_val>-0.2306016981601715</left_val>
            <right_val>0.7980728745460510</right_val></_></_>
        <_>
          <_>
            <feature>
              <rects>
                <_>
                  12 20 4 4 -1.</_>
                <_>
                  12 22 4 2 2.</_></rects>
              <tilted>0</tilted></feature>
            <threshold>-1.3133999891579151e-003</threshold>
            <left_val>0.2504869103431702</left_val>
            <right_val>-0.2452708929777145</right_val></_></_>
        <_>
          <_>
            <feature>
              <rects>
                <_>
                  5 2 3 3 -1.</_>
                <_>
                  6 3 1 3 3.</_></rects>
              <tilted>1</tilted></feature>
            <threshold>7.4564828537404537e-003</threshold>
            <left_val>-0.3125518858432770</left_val>
            <right_val>0.4504955112934113</right_val></_></_>
        <_>
          <_>
            <feature>
              <rects>
                <_>
                  0 20 24 4 -1.</_>
                <_>
                  12 20 12 2 2.</_>
                <_>
                  0 22 12 2 2.</_></rects>
              <tilted>0</tilted></feature>
            <threshold>9.0889241546392441e-003</threshold>
            <left_val>0.2024257928133011</left_val>
            <right_val>-0.6147720217704773</right_val></_></_>
        <_>
          <_>
            <feature>
              <rects>
                <_>
                  7 0 2 6 -1.</_>
                <_>
                  7 0 2 3 2.</_></rects>
              <tilted>1</tilted></feature>
            <threshold>0.0125782201066613</threshold>
            <left_val>0.1695345938205719</left_val>
            <right_val>-0.7571310997009277</right_val></_></_></trees>
      <stage_threshold>-0.8819848895072937</stage_threshold>
      <parent>12</parent>
      <next>-1</next></_>
    <_>
      <trees>
        <_>
          <_>
            <feature>
              <rects>
                <_>
                  2 16 6 2 -1.</_>
                <_>
                  2 16 6 1 2.</_></rects>
              <tilted>1</tilted></feature>
            <threshold>-0.0155031504109502</threshold>
            <left_val>0.6859980821609497</left_val>
            <right_val>-0.2258668988943100</right_val></_></_>
        <_>
          <_>
            <feature>
              <rects>
                <_>
                  20 3 4 21 -1.</_>
                <_>
                  20 3 2 21 2.</_></rects>
              <tilted>0</tilted></feature>
            <threshold>0.0207064393907785</threshold>
            <left_val>-0.2557269036769867</left_val>
            <right_val>0.5650318264961243</right_val></_></_>
        <_>
          <_>
            <feature>
              <rects>
                <_>
                  0 22 4 2 -1.</_>
                <_>
                  2 22 2 2 2.</_></rects>
              <tilted>0</tilted></feature>
            <threshold>-2.1850519988220185e-004</threshold>
            <left_val>0.2544288039207459</left_val>
            <right_val>-0.6034482717514038</right_val></_></_>
        <_>
          <_>
            <feature>
              <rects>
                <_>
                  18 0 6 4 -1.</_>
                <_>
                  18 0 3 4 2.</_></rects>
              <tilted>1</tilted></feature>
            <threshold>-0.0131108397617936</threshold>
            <left_val>-0.5907155275344849</left_val>
            <right_val>0.0993540734052658</right_val></_></_>
        <_>
          <_>
            <feature>
              <rects>
                <_>
                  2 19 4 1 -1.</_>
                <_>
                  2 19 2 1 2.</_></rects>
              <tilted>1</tilted></feature>
            <threshold>6.1943149194121361e-003</threshold>
            <left_val>0.1506920009851456</left_val>
            <right_val>-0.8736773729324341</right_val></_></_>
        <_>
          <_>
            <feature>
              <rects>
                <_>
                  21 5 3 13 -1.</_>
                <_>
                  22 5 1 13 3.</_></rects>
              <tilted>0</tilted></feature>
            <threshold>-8.9005641639232635e-003</threshold>
            <left_val>0.5028867721557617</left_val>
            <right_val>-0.2449757009744644</right_val></_></_>
        <_>
          <_>
            <feature>
              <rects>
                <_>
                  4 20 16 4 -1.</_>
                <_>
                  4 22 16 2 2.</_></rects>
              <tilted>0</tilted></feature>
            <threshold>-0.0281795095652342</threshold>
            <left_val>0.5246080756187439</left_val>
            <right_val>-0.2991470992565155</right_val></_></_>
        <_>
          <_>
            <feature>
              <rects>
                <_>
                  4 0 19 6 -1.</_>
                <_>
                  4 3 19 3 2.</_></rects>
              <tilted>0</tilted></feature>
            <threshold>-0.0641956180334091</threshold>
            <left_val>0.5579047799110413</left_val>
            <right_val>-0.2518230080604553</right_val></_></_></trees>
      <stage_threshold>-0.8101832270622253</stage_threshold>
      <parent>13</parent>
      <next>-1</next></_></stages></myhaar>
</opencv_storage>
